-75
14
47
-47
38
25
59
-31
10
35
-28
1
-34
29
27
43
52
-12
38
-68
-6
-17
-30
20
27
11
18
-3
-13
-59
-1
-15
9
-39
-9
29
6
28
28
-21
-16
-69
40
-7
-23
25
17
-21
-35
-40
40
-3
26
-33
20
-3
22
12
-41
32
31
14
-11
-8
-17
44
16
-41
-10
37
-33
-45
21
18
-3
35
-11
-37
-51
12
-25
1
16
-39
30
-9
11
-9
30
15
36
53
20
-26
31
-19
22
14
14
17
3
-18
-47
-40
-63
-28
41
-11
-41
-41
-14
-24
-32
13
-13
-3
16
-43
-24
-41
39
-44
34
38
-55
33
22
-23
12
54
-5
4
-22
25
16
44
43
9
38
17
0
-12
64
10
-33
-39
27
37
-32
-24
20
-3
33
-21
27
-47
-37
15
44
43
-3
-37
-36
27
5
-49
-25
-32
-33
13
-6
41
9
55
-31
-76
-19
-28
19
4
-67
23
32
-2
26
-26
60
50
-47
16
13
61
1
-42
69
-50
-6
15
2
65
-43
-7
-17
16
-17
-29
33
-35
55
16
32
20
58
-45
40
24
17
44
8
27
2
27
-31
11
-22
-16
-37
-72
15
-52
65
-18
47
-5
32
31
-40
-34
-61
-7
-52
22
34
43
20
5
9
-4
8
-18
24
39
-48
-6
-6
39
7
53
1
-52
42
-30
21
-32
26
30
24
40
24
-30
-18
14
40
-6
-19
-19
4
-17
-4
11
15
-54
-3
-6
-6
-39
19
9
-4
-44
4
-1
-12
21
35
-35
-26
38
-51
9
30
-32
-14
28
-13
12
51
-49
-6
40
-25
-25
35
-26
39
1
4
18
-30
11
25
-43
-42
-11
29
6
40
19
3
0
-26
-18
19
8
8
28
-36
-16
-5
-34
21
-29
30
-32
44
-5
40
-44
25
-33
-21
20
-12
18
-12
-21
-7
-47
-30
28
63
-34
-45
32
-66
-37
11
-34
17
42
17
6
21
2
26
-32
20
-42
-16
21
-5
-17
24
-66
-32
-49
-66
-17
54
22
40
33
-24
16
-70
-27
33
-22
2
-31
-40
50
-79
41
-27
-41
45
45
-15
14
23
60
-33
48
-20
40
52
40
64
33
-15
-20
41
2
19
-33
9
-38
-33
15
-29
-26
49
-5
33
-45
-61
-3
-19
-21
47
30
28
-44
15
-32
-18
-64
17
12
-4
-17
-2
6
-27
17
-67
-22
-44
1
-29
8
-9
-18
18
-79
37
-10
59
-26
14
-35
44
35
18
-10
-8
7
-35
43
-36
-20
55
35
4
63
45
-73
19
1
-17
10
16
15
78
21
-37
74
-35
-65
14
2
19
11
66
26
31
-5
42
-42
40
1
18
45
60
-85
-35
63
-12
62
-7
-45
10
-16
35
-7
42
-34
-44
-26
23
1
2
36
-3
12
-41
22
-53
23
2
6
6
-19
13
-34
91
-9
-17
9
32
27
-17
36
4
66
29
14
-25
50
11
-54
-49
35
31
47
64
28
67
-49
0
0
42
23
34
-7
-3
-28
-33
7
10
-5
-19
-17
38
63
9
32
37
11
-35
-27
30
-18
30
16
-11
21
16
-10
-13
-14
18
10
59
28
64
18
6
-15
6
-30
-58
-32
-29
-39
63
7
42
13
-34
21
15
81
58
-23
61
-37
-59
-11
-16
12
62
-25
22
33
34
-18
-27
-54
-50
64
30
32
-12
55
29
22
31
9
15
-55
24
-59
10
14
-4
5
-47
-2
83
3
-8
7
-38
-10
-76
36
8
-80
-47
21
-24
22
-51
26
28
2
-4
22
-41
25
-1
13
20
-7
41
55
-15
-6
-19
31
31
-14
-44
48
10
-27
5
51
30
59
17
-69
-25
-4
-55
46
-13
8
45
21
-27
38
-14
21
-33
-26
20
16
-12
-42
-44
34
-13
48
19
0
30
27
-28
-32
-24
5
-24
42
-25
0
-31
37
51
-22
-46
36
-41
-3
-14
39
-18
-29
-43
-35
29
9
-6
-2
-11
-27
-9
-19
3
10
6
-10
-26
1
-32
4
-14
16
-13
3
-5
-47
32
16
-32
14
-22
-43
-51
32
-5
42
-27
-11
43
-29
15
37
-49
4
26
-3
11
26
-17
13
1
-6
0
-37
-44
14
28
-10
5
-36
-5
8
-28
16
-41
-18
13
-19
-24
-33
23
-29
13
2
-49
32
32
-6
-33
11
7
24
19
-20
-10
3
-7
-25
-31
-40
26
14
65
-6
-50
-11
22
28
-27
51
-49
4
18
0
19
-36
4
-12
-5
-54
-27
-18
-28
34
-22
-42
4
-60
-24
-5
-3
-42
-1
8
3
5
-39
38
-6
36
3
-56
27
-1
-24
11
17
31
55
-24
46
20
31
29
22
22
26
-45
36
20
31
-13
11
35
9
15
-29
1
-38
-9
44
-16
18
-7
17
-45
-10
26
33
-9
-53
5
-23
57
-45
48
45
12
-8
-8
-38
-31
7
10
50
5
-20
-16
35
-54
51
13
29
-27
-9
3
-7
-48
5
-32
31
-19
-57
-11
19
18
16
10
11
-11
50
-38
-36
55
74
-23
-32
8
41
22
-3
-26
4
-18
-23
-26
16
-16
-29
-68
-29
-36
34
-1
-62
24
56
14
-22
-43
-45
2
-13
34
-8
-16
-23
40
0
-1
8
14
26
39
-53
-29
-12
17
18
-11
6
-30
47
47
10
-28
21
46
39
-52
-13
-41
29
-46
-80
-16
40
-3
-44
-5
-38
-34
16
-16
-31
-1
9
-25
-28
-6
-23
-25
-36
-42
-11
-23
10
41
-15
10
29
-44
-28
64
68
-20
10
12
34
-14
-74
-20
45
61
-63
6
-16
-11
-38
20
-7
42
10
35
4
15
26
-38
-13
31
35
30
-29
-14
35
8
-34
-22
-1
9
-10
-15
-18
29
-49
35
35
-31
-1
-3
13
-3
28
-41
10
3
-22
38
-13
55
-25
-16
44
10
30
40
21
-22
13
34
4
18
-40
-57
-40
-46
5
-17
-21
-32
-11
15
-28
-11
-22
-32
-16
-40
-2
-25
14
-16
36
-47
-27
-8
-9
-7
41
-33
16
1
20
-33
-3
-5
26
-32
28
-15
-12
8
-42
-53
42
33
-3
16
-25
27
12
21
-31
59
-51
12
20
-13
-3
27
-18
39
1
5
18
6
4
-28
19
-44
12
20
37
-13
-21
38
34
13
46
-19
15
26
33
-10
-28
-15
-43
-19
19
1
49
5
18
-24
-7
-43
43
46
1
44
41
20
43
-38
32
1
12
63
-33
-29
57
35
32
40
27
-26
-22
28
14
-33
-41
-24
-33
-33
36
-19
29
6
-14
62
-24
42
48
4
-17
-2
-27
-4
2
48
34
-40
-66
23
29
36
24
-28
-31
-33
-22
17
43
71
-38
-22
31
-23
-7
-36
49
-32
56
36
-19
-24
19
13
-30
24
1
16
11
-48
2
30
-25
-67
-26
6
36
4
-51
40
12
63
7
27
-31
44
20
0
-15
42
21
31
48
-15
-20
-11
25
22
-37
46
20
28
-44
-22
43
-1
28
-43
-4
11
-70
-19
36
37
-34
50
-39
-19
54
36
-4
1
7
13
-4
2
-37
35
11
3
-11
33
24
-43
39
29
36
37
-37
-36
4
15
-2
25
14
-32
37
24
-18
15
43
-39
-30
6
5
-16
-47
-41
1
-21
-4
-4
1
-13
-30
16
9
-41
-8
-43
19
-26
-10
-19
46
-7
-3
-24
-3
2
-50
-30
9
-20
46
-7
-24
27
-32
20
26
-32
26
2
-15
-35
-28
-1
35
-30
31
12
9
37
31
17
-25
11
39
25
-31
40
-14
14
-10
-9
0
-17
-45
35
40
65
-34
16
6
14
-37
-2
16
-33
-20
-21
44
2
-27
48
19
-9
-2
14
5
-15
6
12
21
-3
-22
-9
33
17
-34
-15
46
-27
9
27
-29
-5
29
-50
-38
-45
-26
-33
19
-32
5
57
-5
-46
17
29
7
-12
-41
38
-11
-31
-31
-9
-30
-7
15
1
41
-45
-11
-32
11
-2
-14
1
-14
1
22
39
6
-29
3
14
-53
12
-23
-11
12
31
-6
23
18
-32
-33
-25
17
-1
-20
-2
14
-28
19
37
17
-35
-14
36
34
36
12
-43
12
43
10
-6
-10
43
39
23
26
19
16
5
47
-37
-8
-43
-40
12
-76
35
3
-42
-37
-30
-38
-34
6
-44
25
8
-24
-43
-52
44
2
-36
14
83
-16
-3
39
-20
-15
-30
4
62
22
41
42
-29
-30
54
-13
-32
-42
-42
-12
-68
-16
17
-28
4
-39
-43
-13
5
73
-47
-6
52
33
-40
-54
-31
14
29
3
8
37
-69
-10
-21
18
2
83
-37
1
-22
0
-17
-53
12
43
-37
-38
47
22
-6
-10
-50
43
13
-3
21
-9
11
20
-25
0
36
25
25
-19
29
25
27
-32
-1
24
-25
64
24
-23
-25
46
1
25
7
24
37
21
1
13
22
-18
5
-21
33
-5
-18
33
38
-17
-6
-16
3
-46
24
-36
-11
27
27
-35
-21
-37
-17
-10
-5
-27
12
18
30
-17
0
2
-42
6
-41
34
36
-41
-6
13
49
3
-40
-44
-32
18
35
-10
-49
-25
-21
33
-26
-16
10
-29
-18
33
9
-21
7
-23
-15
-7
14
-42
-43
30
42
-33
4
30
3
28
34
4
18
22
-21
-41
-41
-14
-47
-9
-7
-34
26
16
-8
33
-15
0
-33
-29
3
7
-19
33
-41
-32
-16
-1
13
-28
21
-20
-45
32
13
13
34
4
-45
17
-51
20
-7
7
36
21
-16
5
-13
28
18
-36
1
2
-15
-26
-12
4
-1
46
26
-1
-26
32
-40
-14
-3
-13
14
-48
14
42
11
-20
-10
26
30
-9
17
31
33
42
-39
3
-29
-6
-22
-19
8
-51
33
-38
-24
13
10
37
5
0
47
40
-3
-18
32
-12
-7
-46
-23
18
15
4
-30
-28
3
-19
-35
-10
-6
19
-8
29
-18
9
5
-37
-53
45
-1
-18
41
-12
-11
-25
-36
-43
6
-26
-6
-32
4
39
19
7
-6
-1
31
9
-28
-10
25
-32
-10
-22
46
49
6
-43
-34
44
-33
-41
0
-29
35
40
-56
23
-3
9
19
-16
16
-47
36
15
36
-58
29
-52
-17
-10
-5
-26
15
-68
64
-9
54
51
-11
-10
51
-34
-2
-8
13
45
-43
-11
-35
19
8
33
6
48
-15
-44
-51
-4
27
71
-60
5
-31
-19
-49
12
-53
-6
-50
-8
27
-37
34
-27
19
38
66
21
-12
18
63
-4
-38
-13
-46
-32
19
7
21
-58
20
-30
42
8
9
41
17
1
-27
32
-3
10
30
-46
50
-3
-15
-31
5
-10
-36
-58
0
12
-16
5
-44
2
33
30
-37
3
16
13
23
8
-41
1
21
46
-17
-23
-68
-21
8
-54
39
9
39
-39
-24
19
-19
-23
34
63
5
-28
15
-26
23
6
8
-15
25
-20
0
32
-49
28
-64
5
15
-39
38
-43
-29
-30
9
8
-12
-36
26
6
-89
58
35
-4
9
49
-32
33
2
21
-42
22
-61
-36
64
30
9
-32
40
-12
9
16
55
-26
40
-46
4
-12
0
-33
-75
47
-14
-50
-16
-5
12
-25
-36
4
6
-19
-42
18
52
-12
-45
-32
39
15
-42
-36
11
-7
8
-42
30
54
31
19
-8
14
21
-30
-58
20
4
42
31
-57
24
34
-6
-3
-4
-36
21
13
51
15
26
-59
-35
-45
-44
58
39
-28
-9
-36
-43
13
-51
46
21
41
8
-33
-32
-50
21
38
-9
41
-7
42
-7
-33
23
-41
23
13
-29
37
-14
17
26
-20
-33
28
-105
63
-25
21
11
27
-37
-33
-32
5
-37
-2
-27
30
-48
-42
-44
15
3
15
45
39
-4
-69
4
-28
-14
-13
-38
4
5
-26
-14
-64
7
17
46
-39
20
17
3
-25
52
46
-63
29
41
-77
90
11
-44
-30
9
6
-31
62
47
41
-57
56
-2
-36
20
-54
78
35
-5
-17
51
-45
23
-24
-5
65
-1
-31
-49
29
-58
30
-64
-1
-30
29
-14
-26
-10
6
-19
-35
-11
-25
34
62
3
-45
48
-13
-14
13
19
-1
-54
-25
-12
3
52
-1
82
-20
-9
31
-8
12
19
-31
-17
-28
61
21
-21
-1
15
-30
32
-51
20
41
64
-26
52
-40
-13
-27
8
-89
31
50
-37
-5
-44
2
69
48
-12
-27
28
-2
22
14
2
-32
-10
14
-35
12
-19
-4
10
-4
10
20
-21
10
2
-32
-43
-29
11
-20
44
-41
-27
-48
-19
45
11
2
-16
6
-8
-12
38
74
4
-1
-4
-36
-18
-42
27
-14
-17
-31
-29
45
10
-15
-29
8
-12
0
-46
-50
-33
-23
-8
-35
-24
-15
-22
-14
-31
50
0
5
-57
-30
30
26
-39
-47
-2
-52
26
-29
-16
30
7
3
-26
32
42
-21
29
19
6
-44
-25
-15
15
-14
-48
10
6
-12
39
57
2
-79
34
13
-30
-24
-35
-17
-5
6
-13
12
-15
-29
-10
48
-44
-36
19
56
-8
33
18
-68
-14
56
6
-9
19
49
-1
38
35
29
11
-18
53
-10
-2
32
47
-8
41
-20
-45
-8
17
29
-5
-11
5
-42
-70
34
43
-28
-30
7
-28
-18
15
-25
29
-19
52
48
42
22
36
-5
34
-17
-46
-12
-19
37
-10
-6
-34
26
7
-14
1
-4
-43
-25
-1
-44
26
38
7
-6
-42
4
-24
3
-23
22
-23
-33
-44
-30
24
17
21
-16
10
32
-12
-11
-2
-30
-16
10
-30
-2
-2
-17
12
-34
2
-17
-33
42
4
37
8
8
6
-19
14
-36
30
-16
34
-10
33
-41
-12
3
2
21
-8
-2
-41
-27
-39
-5
-32
-33
-2
28
2
-23
-41
21
-22
-23
-23
1
14
35
13
-23
-43
6
33
-24
40
41
-12
27
28
-26
-39
-31
7
-35
-4
-16
35
9
1
11
-21
-33
-41
-14
17
7
11
-23
4
11
-37
11
17
-32
7
-33
-4
32
38
45
0
-43
16
-64
-82
31
-43
-12
10
-5
-7
107
-74
15
-58
-21
18
28
43
-40
25
-24
-10
-49
51
13
-50
-17
31
29
1
-23
-60
34
2
33
0
58
-12
-35
13
45
-24
32
-58
43
28
26
-12
-10
36
-38
-24
-71
-50
-20
-1
-58
-81
-5
11
51
-8
-8
-40
-37
-31
-38
12
7
-54
-9
118
-9
-49
-6
-16
-29
5
-7
50
24
-31
-12
18
81
55
-41
-1
-24
4
-6
-27
-42
20
6
-15
-65
26
-14
-39
-21
38
39
93
88
-6
21
23
-42
-38
-6
-25
-25
23
-6
-7
15
19
-11
32
-32
-27
-42
-49
-2
-5
-30
0
-12
38
44
-56
-46
-10
-43
44
16
21
12
31
-10
62
-33
-26
-13
-29
20
38
-21
-42
-40
69
-21
-27
41
-17
-34
-2
-23
-31
-33
-41
25
18
37
20
14
-45
2
-9
29
9
-41
52
35
12
-28
44
14
-10
3
27
58
12
36
-61
-5
14
-25
-1
24
-11
-26
13
-15
-26
-9
-23
33
-47
25
45
19
-21
-36
10
22
-24
26
48
46
15
-46
54
-21
-36
-42
27
-22
-2
25
-29
-15
3
26
48
-74
35
55
-21
20
61
43
-14
14
10
-41
-32
-85
-20
-28
-4
8
9
17
-62
-20
35
-18
12
5
56
33
8
5
-61
10
-2
64
34
45
-3
-25
-41
42
-27
-13
-24
33
-43
13
9
-8
40
-54
4
-56
-4
27
-19
23
20
46
1
-3
18
58
20
0
15
-34
51
-28
11
-5
15
-25
37
37
35
-20
17
20
31
25
47
-44
-23
-21
-1
-27
18
61
36
-58
17
-12
-8
15
-4
-26
0
20
28
-16
5
50
-25
3
-27
-44
59
33
-22
-28
-31
-25
-38
-1
-10
-21
-11
18
-34
12
-31
-8
-47
2
38
39
33
-27
-10
24
-40
12
-7
-30
45
0
-5
-26
-11
43
6
-12
-5
-27
-25
5
41
32
42
41
-3
-12
37
20
-31
-4
23
18
-5
6
70
6
67
1
32
-22
-19
-11
37
58
43
-60
-27
13
18
-1
7
-35
45
-34
6
47
-23
17
38
18
18
16
4
7
-30
11
41
-29
37
-35
33
-39
26
64
-33
-20
-25
-5
-53
-17
40
-41
-10
9
16
21
11
-36
7
-38
27
-13
28
-34
14
-4
2
37
-12
25
-31
5
-41
-36
44
9
44
-19
-32
8
-35
31
14
18
-50
-21
67
-41
-49
94
-54
-29
-10
-51
-1
11
-34
-43
56
-9
0
55
9
-31
-36
-19
-63
-49
34
31
-67
-8
6
-59
25
31
-28
-23
-27
-57
61
-13
-30
21
12
10
46
-22
17
17
14
15
-10
36
-47
1
-21
-11
-61
-43
-34
11
-40
-3
31
22
6
-41
-33
22
64
-21
29
-6
2
-35
-60
73
-26
-2
-11
-11
6
-12
-80
-18
-28
1
-2
56
-38
-25
28
-47
6
-37
64
-37
35
-13
42
-20
23
-65
51
46
-58
12
-50
-17
9
-39
52
-62
-29
-11
36
-29
-43
-25
-15
59
50
41
14
-89
75
24
18
90
-29
-38
-59
-24
-42
-21
1
-72
9
-57
-3
65
-64
24
-32
-53
-54
-21
-6
47
4
-10
-32
1
26
-15
-16
-8
7
17
70
-22
11
-28
18
-4
17
-9
-44
-30
110
-43
17
41
-5
26
6
32
-68
-39
-39
-22
26
24
12
0
37
-30
-75
16
42
-60
9
-23
-19
16
-1
88
-27
-39
43
22
-45
-38
-75
-33
-21
-1
-10
27
-80
-49
61
-51
19
52
56
-8
35
4
42
-34
-16
-69
64
10
-1
-26
33
48
-32
-38
101
-32
-21
10
-9
-35
-7
-20
-33
29
-3
-24
-34
-6
82
41
-25
54
33
29
-25
-13
-1
32
12
-34
-27
-55
-18
85
-35
-21
-34
24
0
-17
-27
8
-22
43
-60
-47
-63
6
38
-19
2
-57
50
9
-22
24
15
-20
-27
-5
-1
-3
38
59
2
-29
10
-19
2
-49
46
-6
-31
62
-32
-1
-44
64
53
26
-47
28
39
-29
1
0
-32
-29
-59
36
-33
-3
11
17
-40
-3
54
-28
-37
53
-38
51
2
-11
-21
-26
26
-51
-1
79
-11
-7
-8
37
36
-30
-6
-6
38
-49
-49
-85
31
-6
18
-46
-12
-5
-20
-31
-44
42
36
-36
19
-40
21
-11
34
33
18
-35
23
8
-23
39
50
5
-20
-28
-25
-7
-22
44
-8
3
14
-3
0
28
-38
19
-57
-47
-33
15
-53
-16
-2
-1
-41
-56
-26
-40
-6
22
-24
33
-38
8
45
40
-41
33
34
-37
-46
5
0
-26
-1
-14
13
47
41
-29
-3
-1
8
-27
-19
64
-40
20
14
17
-14
38
-27
-23
30
31
-20
-29
14
-22
35
4
-18
-4
-33
6
11
-52
-34
36
15
52
-19
10
-9
59
-58
-14
21
-15
-5
11
52
9
50
-56
-36
-17
-47
22
-30
14
11
10
-38
-28
5
26
48
-12
24
-8
11
-51
37
-28
17
-21
-46
-19
-18
-32
-11
-28
-34
38
43
-37
42
-19
-23
-36
32
-2
-57
-39
25
15
-45
8
-12
-10
-29
-38
-10
-58
-48
35
-6
-8
50
17
16
5
-20
-26
10
-53
42
28
14
-51
-17
27
43
-13
-29
-20
8
4
-38
-19
40
27
26
-3
-28
52
15
10
22
30
20
48
28
-30
-36
-20
-28
29
-55
66
32
-31
-32
24
10
1
11
-7
64
13
45
-19
28
-6
-27
-50
39
-19
-27
-23
25
34
13
-12
5
-29
16
12
-6
-22
39
18
-6
16
21
-31
-30
-22
24
-68
-21
1
-18
-19
-51
-53
43
31
27
-13
16
-6
-30
52
11
-14
-5
-15
24
1
-43
-3
-27
9
-35
-2
-35
47
-30
31
41
-43
0
6
32
36
20
7
-2
27
33
34
-15
-33
0
0
-26
36
-24
-45
8
-31
31
30
-13
-36
32
31
23
-8
-30
31
-36
42
-43
-50
-15
-4
19
-7
8
9
39
1
36
32
0
59
4
-18
-43
-23
-3
-27
36
-26
-33
-34
9
30
-24
4
-7
18
-26
-2
-12
9
-22
-12
16
-44
15
-1
-1
-36
3
10
26
-34
-12
36
-29
41
-8
-27
-12
27
-33
-8
6
-29
-17
3
46
-49
-21
12
-41
16
1
-38
-21
37
42
-6
60
-33
-30
-41
-38
-26
-26
19
69
-33
7
32
-22
-34
24
29
11
80
25
22
10
36
70
-21
-9
-9
2
4
13
-48
62
21
35
-75
-25
3
-35
-31
7
-43
23
-4
-31
27
-32
6
-24
25
21
47
-32
44
23
13
10
-18
24
-11
60
50
4
10
-37
52
18
-23
13
-8
4
42
40
3
-20
14
-21
-43
-30
-10
44
-27
-12
5
-37
-37
28
-12
24
23
38
31
-11
-11
-36
-40
-38
44
-18
-24
27
29
-44
8
-20
10
2
52
54
28
-32
-40
23
42
12
31
-32
18
5
53
12
-1
54
-25
-24
22
-42
59
-9
-2
-14
28
17
81
21
7
-15
27
43
-66
-28
32
14
42
64
6
34
-14
17
-15
25
-62
86
-24
29
-43
39
-36
15
34
-47
-21
5
42
-26
-4
-35
3
-10
39
42
14
-28
-2
-29
0
-10
17
-9
-18
-54
-12
-27
51
-24
49
-4
-42
-7
19
0
3
43
-21
43
1
4
-61
-19
-31
51
-27
44
11
-6
-44
-17
28
22
31
-40
28
14
35
-24
7
44
-6
36
-53
-12
-5
-71
19
-18
26
-22
-17
-9
27
8
-11
2
-35
-9
-45
-31
35
-53
8
38
28
26
15
2
19
-24
-40
12
-12
24
35
-4
-5
-43
16
-34
-15
21
-25
-13
44
46
-8
24
-42
40
-1
4
-16
-7
29
-34
44
-39
-29
-16
-28
-10
18
-40
-38
20
-14
14
-32
3
-30
23
11
-2
-53
-26
-18
-18
-6
4
-24
-19
-6
1
-45
12
18
-22
-47
15
33
-26
42
14
13
43
-19
-28
-21
49
-37
40
-23
-30
-12
3
6
-28
24
17
-46
-7
-35
5
-28
23
24
36
-18
-20
17
-15
-13
-19
7
8
26
-4
-4
-12
53
-21
-30
17
-11
18
-7
32
-43
21
-34
0
-8
-26
-2
26
12
13
27
35
-12
-2
37
30
42
-24
-40
51
-24
38
-19
18
98
22
20
65
-10
22
8
-61
19
-33
-9
18
-2
31
57
-17
-27
-7
-9
-31
-46
43
-39
25
31
-48
-23
-32
-29
1
-32
-6
31
-29
35
6
-5
53
-56
36
16
48
21
12
39
6
28
-59
35
31
-10
-15
49
38
-3
-55
-19
-6
-5
-11
-50
-28
17
20
51
40
-51
21
44
-21
9
-30
-38
41
-31
1
-16
30
18
24
-36
38
0
-21
35
10
48
3
-16
-37
10
32
-66
-13
-43
13
-11
-43
-48
7
-9
21
-55
8
-27
34
-7
-18
-27
8
15
2
-54
-9
-57
13
-1
15
-3
37
6
21
31
-17
-33
3
13
-23
38
-19
30
60
-30
-7
32
37
-23
14
-22
-7
-36
-33
8
32
14
-17
-2
-6
-28
68
13
5
20
-38
-28
60
-51
-36
51
-46
-40
-4
3
27
-23
-59
-21
48
-25
-38
14
-22
53
-10
-55
41
15
-23
4
3
-36
51
15
20
0
41
30
10
28
12
-16
-22
42
28
25
8
-44
17
27
-22
-30
3
8
-35
67
-23
26
-30
-46
30
-19
15
-22
-6
-34
-39
17
39
-46
-24
-10
-2
-37
10
-20
-16
37
13
-32
-18
-22
30
-23
44
-38
-44
-30
1
19
33
-24
21
-9
-42
23
27
21
36
-29
-9
19
-36
32
-37
22
-1
-1
36
-27
-10
3
3
41
40
45
-19
39
26
-21
-13
-41
-7
-18
-28
-8
-4
23
-17
40
4
-48
27
-3
-11
-24
-23
10
-40
42
-7
-34
-3
1
34
-12
6
42
-11
-32
-28
11
-27
-22
0
15
1
-19
-3
38
-7
-37
34
47
-20
-33
-39
54
1
-20
-19
-7
2
-9
12
3
-2
12
-35
-29
31
13
12
-8
-33
14
16
32
10
-12
-9
-25
5
53
2
37
27
24
1
-3
27
-9
-3
59
-13
-3
-21
0
21
43
1
-4
-18
-27
-7
0
-41
-28
0
18
-44
4
-2
-30
-23
-9
-35
20
18
-40
-30
26
38
2
22
-11
-35
-45
30
49
-6
13
-21
-10
-31
-44
21
2
17
-16
-36
-10
29
43
31
-22
29
-4
-2
14
17
-33
-27
45
-30
2
16
-42
-55
21
-19
34
-8
27
17
25
-56
32
1
-2
-26
-20
20
14
0
-7
-36
-5
-32
43
42
-39
7
-74
-3
-56
25
-22
-23
-2
-1
1
17
32
-29
-31
-44
26
12
47
49
-45
-46
-30
-31
-47
55
34
-21
-4
-66
43
-50
-38
-7
-38
8
-1
0
7
-11
1
-57
-41
16
-42
-35
41
21
-39
14
39
-27
0
-31
-49
7
14
6
-26
-8
40
6
34
-30
10
-38
-51
-48
-14
43
28
-42
1
16
-11
53
36
-17
30
9
2
-14
-29
-5
-34
-44
4
-33
-3
10
-11
41
16
-22
5
-50
-3
-71
48
22
50
10
-21
-9
-17
15
-41
15
-1
49
18
-4
15
-69
85
3
-21
9
-4
36
53
-46
30
45
-46
-4
-40
13
26
-7
12
-34
-10
-59
-73
-59
-29
10
-34
24
-22
-16
-38
0
19
19
49
-33
-49
-49
4
17
-19
37
-45
18
11
-41
-13
36
-70
19
15
-33
-9
-2
-8
66
-45
12
-9
-53
-13
-8
8
13
-48
-16
33
-19
-21
62
40
13
17
4
74
-31
-50
49
58
-15
-42
19
-30
25
0
-19
12
12
-17
-7
-9
2
-50
-61
-55
-10
26
-58
24
7
20
5
-4
-18
35
22
26
-3
9
34
-62
3
-27
-34
-16
-17
-44
21
1
-59
-34
62
-9
-37
19
29
-2
32
-24
3
24
55
48
-17
21
13
4
16
-28
-20
17
-9
21
-41
38
38
17
-12
19
-11
23
-6
20
32
-7
-40
0
2
-11
-18
-28
40
-33
8
44
24
-10
-22
-21
33
26
-25
20
-33
-23
-56
-26
5
5
23
-1
29
-2
0
18
-18
21
43
37
-17
19
15
-35
5
-6
-21
31
13
25
25
26
-41
43
-34
26
-21
-16
-12
-49
-9
-23
30
26
-41
-5
67
1
-19
18
-23
33
36
-31
-10
42
20
-45
4
-19
-32
-34
39
42
-19
6
-12
44
6
-37
30
4
-36
-12
-33
-10
-20
6
-8
-45
-24
12
-35
-31
15
44
-1
-45
-9
-53
16
38
13
-50
21
23
25
-50
34
-33
26
3
54
33
30
-34
9
16
-24
14
-25
-4
-14
-1
-52
-14
-9
40
0
-3
26
0
-26
-23
18
45
6
-47
44
6
-50
-36
20
8
-4
11
8
22
28
56
-29
-8
-32
11
-37
-55
64
-19
9
-2
34
-4
34
-26
10
50
-47
29
24
-58
-47
-38
-25
22
49
-22
27
-27
27
-39
-36
-3
-28
50
51
-4
-8
18
40
8
12
24
26
-46
-20
-42
37
10
-58
3
55
-34
-11
-15
27
-3
-17
3
8
33
0
-36
10
-46
-8
17
-36
-16
21
7
-36
-10
9
23
17
9
-29
-11
-47
38
10
-42
15
34
5
61
14
-37
6
-34
3
-8
10
37
23
-24
-4
-13
35
66
30
31
-8
-20
17
-31
-22
61
10
40
34
-33
-18
76
-30
19
-31
9
5
-13
-21
-9
-44
-2
-56
-4
-48
43
-2
10
21
0
10
47
1
25
16
-73
7
58
29
61
-34
-4
-21
16
-24
38
10
-34
39
-37
4
26
21
15
18
-28
10
19
-49
36
-31
73
-2
-62
-25
-2
11
-17
-38
-87
35
-3
-28
11
-5
27
39
28
24
-26
82
-27
52
-46
-13
-25
18
27
-12
4
11
12
-61
7
18
-70
-52
18
28
-60
27
-27
-42
12
9
-21
-1
-10
15
-5
64
-46
-5
16
-6
60
16
83
22
47
34
22
2
-10
3
44
-27
-3
-5
15
-25
44
25
39
-16
51
-38
-11
49
-57
-23
8
-18
60
-41
-21
-58
15
-28
20
-3
26
17
-61
-37
-35
-29
43
67
8
34
-30
33
-16
-75
-14
29
-38
78
9
-5
-43
6
-10
44
-32
-38
-45
0
66
0
16
-36
-39
-42
-46
-48
12
9
25
11
26
-5
-16
0
49
46
-51
41
6
25
39
-14
5
-51
-58
20
19
-21
2
16
-35
7
24
-40
-51
20
-27
-49
-3
-38
16
-30
-42
-1
18
22
-35
-42
9
79
3
23
11
23
-10
12
-42
40
-47
15
-33
-22
-15
46
-48
4
-7
22
2
-36
22
42
-31
-15
-29
-27
35
-13
15
-6
45
-24
3
7
-26
43
-12
-22
-14
61
40
-5
-3
-50
43
-1
-2
25
-33
-27
2
48
-41
11
47
19
27
22
-35
-35
-44
23
21
31
4
-22
-39
-23
13
-37
4
-46
-19
3
-23
-3
-11
14
66
-57
6
5
-7
1
-24
21
14
24
-4
29
1
5
-4
-32
0
1
24
9
-57
-8
-6
-3
61
12
25
-21
20
31
1
-29
-1
50
39
20
25
-53
42
32
-32
-36
14
-19
-19
40
-29
19
-49
25
27
-30
-29
34
1
68
-68
11
5
-23
-13
67
-3
26
-5
24
0
72
-11
67
18
-12
32
9
9
-58
-11
-9
18
-2
39
-12
-7
14
-8
-7
19
-18
44
-61
-77
-49
13
-44
49
13
1
-46
-40
-13
-74
-21
-9
-37
44
4
53
34
36
19
-82
18
-31
38
-17
-20
21
17
20
-34
-16
-43
45
-2
-38
37
25
-39
4
-22
24
11
-52
-2
-43
-42
28
-1
7
-19
-13
-53
18
-7
-24
-43
-43
43
15
5
-3
30
39
-28
50
21
-35
47
18
-14
-2
-34
3
9
15
-23
-36
-14
-18
-18
-27
25
17
-2
-38
-3
44
5
1
-8
-7
-46
-31
17
68
-14
20
48
22
48
-13
-18
-7
43
-12
45
18
-43
24
-26
-6
-17
-21
20
-14
21
12
0
36
-15
8
-16
-24
19
24
-43
26
-41
-15
-42
71
29
-19
26
-38
0
-24
-30
-30
-11
13
-16
17
-12
33
-25
-2
0
3
-4
49
7
20
-25
39
11
-11
-1
28
-6
7
17
-13
-31
-48
30
44
6
-8
19
76
-49
-2
16
-37
43
-40
-42
35
-26
36
20
4
20
30
-37
43
-37
-7
49
40
-29
-12
-50
15
6
67
-43
-51
-5
-4
-30
-17
-36
-44
14
-27
-12
34
-51
11
22
19
-1
-6
28
-31
9
34
31
12
26
-36
-7
-36
50
21
-60
32
-29
-14
27
37
-25
50
-11
10
26
-30
-56
-11
-13
-39
48
41
29
-8
-36
-15
-7
8
-37
34
11
39
-6
-36
-39
3
-56
0
17
-52
-47
-33
38
-20
-43
-20
28
-7
20
27
-2
26
4
-23
36
-13
4
18
-32
7
5
56
-26
-61
13
-36
-11
-40
-22
-3
7
20
31
34
-10
-95
31
-78
-23
-28
15
20
13
3
-54
12
-52
-28
-53
16
-8
43
2
-30
43
-21
-36
-6
38
39
-40
-31
40
25
40
23
-1
74
-41
-41
15
37
-38
-22
-14
34
6
69
-3
-15
41
-36
34
44
32
-6
3
-36
-43
40
-9
-39
-44
15
8
-23
-7
-10
8
-18
26
-23
-39
7
-34
-28
75
17
-53
-1
-7
-23
-37
47
-12
46
-6
2
-21
54
-41
-14
-6
-35
23
43
-31
56
-8
31
-50
-43
-12
-7
-49
29
-40
30
-18
-36
66
-35
3
30
2
-29
11
1
4
-34
-42
-3
-31
3
-33
-41
-5
15
-33
2
13
-7
12
-11
9
-44
36
-1
26
-27
-9
29
-12
-3
25
8
2
-6
23
-33
-10
31
2
-42
-19
-3
16
-18
-19
26
-1
-29
-20
-34
17
-1
-49
11
43
3
-23
9
24
16
37
23
26
35
10
38
21
23
-43
30
7
-6
-38
3
-37
36
-6
-12
-33
17
-4
-25
-42
24
-15
24
-45
-39
-25
-22
28
-43
48
18
-12
-24
18
-28
-23
20
-4
-4
-20
-19
-12
-41
5
-41
20
15
-27
17
-38
0
36
-22
-25
19
7
-35
8
-35
0
-28
16
-41
45
-39
1
38
-2
-47
44
37
-24
-8
9
-30
-23
-7
45
51
-1
-15
36
21
-39
-5
38
32
26
7
-43
9
-25
-30
-27
21
28
9
-8
-41
-24
-8
-38
-35
-9
30
-29
-32
24
-41
13
-41
3
-60
-42
14
18
5
-17
-5
-10
-17
34
-7
13
24
-1
-12
16
-2
-17
-27
-8
10
62
24
-1
-26
-19
-6
22
-18
27
18
-45
-43
-22
30
28
11
-9
43
-36
32
19
42
17
-50
-32
-17
6
-12
-2
38
2
-31
-1
-35
-37
2
-38
-5
-44
6
-1
59
-21
3
-41
-18
14
-25
31
-32
28
-44
42
2
40
36
-33
-9
-38
-3
21
-1
5
-34
-20
-53
25
-40
48
-3
48
-16
-19
8
24
-23
33
16
-27
10
-3
15
-22
0
-31
-17
-32
-25
17
13
-8
-34
36
42
-3
-20
17
12
-10
55
-24
-35
-12
14
-4
-15
-23
6
18
-9
-13
-6
12
-36
40
-9
-32
-29
-24
2
-36
37
16
-2
1
-5
3
39
5
-31
-4
13
-14
-27
30
-13
46
9
-27
32
6
-49
-13
-43
39
-23
-20
18
49
-30
43
21
-44
-19
12
48
-33
27
18
8
-11
3
15
36
42
-24
14
-30
-29
-16
32
13
-14
-40
25
-35
25
-39
23
-34
6
38
-34
27
-4
-24
29
28
2
9
-37
18
-29
-23
2
-33
-16
17
38
-36
22
-12
-32
1
-2
-25
7
-22
-15
-21
-40
36
1
12
32
-4
-4
-34
-25
-31
-39
36
5
-10
-7
-31
17
21
-30
-7
-33
32
-2
9
35
-4
-30
36
-9
-22
-16
-34
37
-11
24
8
1
2
1
-16
-36
13
-17
-30
22
-31
-16
-7
21
44
-16
13
15
19
-31
-18
-39
-41
-8
16
-27
5
16
22
36
-15
-14
-24
39
-29
-29
8
-16
-3
46
-42
15
-47
1
-4
23
34
3
-65
-34
63
-30
-20
58
-15
-3
-23
17
20
-29
-54
49
-6
6
30
37
23
-30
-11
-12
-45
-37
-38
-8
19
32
24
-35
33
-37
-44
15
-7
69
15
10
-3
0
38
-8
35
25
29
-3
12
-17
-33
18
-2
-15
-9
6
56
27
32
-32
-12
-36
-43
-40
-15
-27
-15
20
29
-42
33
20
-30
-35
-10
-49
35
14
-19
-18
1
-36
-21
40
24
-27
28
-25
-28
-37
-27
3
20
-12
12
12
43
-3
26
39
10
23
-11
-26
-41
15
-40
0
-41
-12
-24
-10
0
-1
33
2
-1
25
8
41
32
5
-73
21
33
-28
-24
2
41
48
-54
-22
-27
26
11
13
-5
45
-4
29
26
-22
6
10
-4
-56
-2
-8
15
57
6
16
16
-27
15
-41
-38
-14
-50
-1
-42
23
26
-25
0
-11
8
22
-63
26
9
-7
-50
1
-4
-7
18
-30
-37
30
-52
37
55
-16
-52
-32
-22
40
28
9
15
-1
1
-46
28
-15
-20
2
-13
-42
-54
-28
-46
-29
-7
27
-36
11
-65
6
23
-3
5
-8
22
32
3
-14
-2
44
8
26
-30
-24
3
3
55
-22
-7
-27
1
52
-26
33
-27
-12
31
68
22
-30
36
-22
-1
-77
6
-36
35
-33
-23
6
35
18
-15
14
58
-20
69
-11
-4
-58
-3
-40
15
-20
11
73
30
-61
22
2
-8
12
-22
-53
-21
-2
33
-9
-56
-31
-52
-18
-16
-17
4
-25
75
-8
5
-39
1
17
43
-35
-17
50
-7
-24
9
-59
22
30
-53
-5
-2
-33
28
17
18
-30
-18
27
19
-40
27
44
-50
-38
-51
27
23
-88
7
-3
36
-63
16
-28
20
24
-7
-12
5
6
-40
-5
-16
-30
-20
27
-25
-40
-8
27
5
22
-50
-57
-25
54
7
0
19
17
-7
-33
-6
-30
14
67
-16
28
-47
-8
-36
-25
-11
-28
-16
0
-51
24
0
-57
-65
53
2
-25
-16
8
-23
-35
-9
11
3
-41
-44
25
34
67
26
8
-2
-23
-8
30
27
24
1
1
9
36
-3
50
-31
-36
-39
26
-29
-4
-8
-12
-38
39
-3
-46
43
9
-34
-19
37
-14
-38
-31
57
-17
-54
-5
2
3
30
-25
-8
39
-4
-60
-54
7
-33
-6
-37
-27
-23
8
42
22
1
11
-24
9
30
47
13
-32
14
29
6
-62
14
-19
46
-5
-39
-4
11
2
18
-4
-64
-20
4
-29
29
37
16
3
-42
-69
41
-45
67
-9
32
15
37
-25
11
-56
11
38
4
-54
35
-49
57
-5
2
-57
36
25
-1
2
-28
-39
-73
9
9
-57
-15
12
-31
8
-43
59
-3
36
26
39
21
-17
60
49
-11
69
25
74
11
-31
32
11
-14
-16
36
-39
59
40
52
-11
19
7
17
-30
29
18
-15
-68
-6
14
-20
-55
33
-41
-66
-42
-33
-60
-28
-34
63
3
-35
22
-9
29
42
-5
-91
-29
-42
39
27
-16
33
62
3
-81
-21
26
-27
-29
24
-1
20
2
7
-8
-4
-14
-3
46
55
-50
-4
33
-53
-1
23
-23
-32
-20
-35
34
-16
69
-1
30
-24
-16
3
-6
-33
14
-1
-46
-27
-50
-25
39
-13
-33
-43
-26
3
30
-16
-43
-48
40
15
48
67
-36
-30
-19
5
-27
-5
-20
31
-44
15
-3
-37
-10
0
18
7
-34
37
30
-41
-40
49
29
14
-53
55
55
-30
-44
13
36
-53
-10
127
-13
-16
35
17
14
-6
-52
58
-1
-32
24
-20
-48
26
-68
-22
66
38
-10
57
-57
-37
-31
-40
-13
-90
50
-37
0
11
-17
-73
1
55
22
16
5
31
29
28
-12
16
23
-30
3
-38
37
34
10
-43
-46
38
49
19
-13
37
35
10
-35
-2
12
37
-45
14
7
64
-40
1
-35
-12
25
-27
35
-37
-51
20
20
22
-17
-3
24
4
31
-34
-13
-34
-5
-21
-55
-9
-47
3
-5
-6
-39
-69
16
13
11
19
-38
90
26
-2
-36
62
-12
-41
-77
64
-26
-5
-55
-28
-22
-39
-61
-55
-22
-7
32
53
-19
-11
55
20
-47
50
-14
-4
11
-59
23
37
-6
2
-10
46
3
24
-20
29
-7
10
-33
6
-23
36
61
3
21
-32
-66
-29
48
-8
-36
9
38
83
-15
9
-26
-54
77
0
13
-12
-29
-32
51
-26
30
32
-38
-39
-31
-32
-39
53
3
-2
10
11
-34
-34
-10
-55
-2
11
-23
39
43
-29
-4
-2
-6
7
38
49
63
1
18
26
1
-5
-62
-20
-41
30
17
-54
-6
22
29
-49
-30
29
-56
-7
-39
20
-18
28
30
36
20
-6
10
-7
-22
-45
-11
3
-45
7
-1
-64
-43
2
38
51
48
67
-38
-49
-51
61
-35
-3
2
-5
46
28
4
-9
54
9
-39
29
35
36
4
-25
-10
35
20
-45
2
-6
-38
-14
-50
-31
-4
5
11
-28
19
52
8
-38
-21
10
38
7
28
-30
41
7
-27
-53
53
13
-39
39
21
-52
-42
18
21
0
15
32
-26
14
35
-24
-55
-57
-3
45
29
-4
-2
27
27
-36
-17
32
3
10
54
-13
27
-13
-72
2
9
-40
11
-12
-13
50
-13
-71
29
-25
17
-45
20
-29
16
-7
36
37
29
-48
-39
-1
22
18
15
36
23
5
15
-60
21
-15
13
13
40
46
-9
-27
-34
-4
-39
-13
14
50
-9
-3
29
1
31
-5
14
-1
45
49
-11
-27
32
6
-57
43
38
-15
-5
-10
-16
-43
-17
-40
-17
27
1
7
34
11
11
-14
38
3
-16
-14
-33
-13
-18
50
36
3
32
17
-27
-18
27
1
-39
-9
-23
-26
-13
-33
-38
32
-18
-7
-22
-12
-7
-15
-29
2
-35
-13
-43
-16
-13
3
-38
-24
6
2
25
26
-2
30
23
0
36
-11
-42
3
3
-15
21
3
-4
-8
-37
-45
28
-12
-20
4
-34
13
-30
-12
-41
-17
17
30
-46
-17
36
10
33
-30
-18
-47
45
11
28
23
-29
23
-3
-24
25
35
1
-10
0
2
-31
-9
4
34
-4
6
-8
-29
12
-1
4
-46
24
-21
-34
-38
-6
13
32
37
33
45
8
17
-20
13
1
32
5
47
-42
75
-35
-20
29
-54
-46
7
9
-47
-9
-44
-8
19
-11
36
-22
-29
20
-22
-38
-17
-3
-42
31
-1
51
-21
-13
-10
19
-10
18
-22
33
1
25
-26
-15
-31
54
41
1
30
-16
19
31
42
-24
34
-24
-41
-31
-15
-35
20
29
5
5
-11
-61
-20
-10
24
28
-26
-36
-16
12
44
10
-6
4
23
-53
-37
-63
-28
85
5
-33
-1
-61
-21
48
-23
24
-16
65
36
18
-21
-26
-7
-45
-40
16
7
24
-9
31
1
-45
-7
4
-55
-28
-47
25
-58
-33
-39
-43
40
64
30
37
-7
-34
77
-25
-37
42
14
-23
2
-25
21
-5
-47
26
21
-21
-6
-30
20
-26
33
14
3
14
22
-18
6
16
-13
-68
-37
-7
69
6
31
-40
-52
24
37
-15
-30
57
-18
-47
9
-71
40
-44
-15
-60
-12
20
29
58
-3
26
67
-33
-15
18
24
-26
10
-22
35
-40
16
-13
36
0
-9
40
-30
-9
43
9
18
33
-46
41
-48
-87
22
-13
-11
60
59
29
-20
-75
31
32
-3
-19
37
-1
-29
27
4
-2
27
-10
-5
-10
-70
-44
38
-57
21
-9
39
12
14
-20
-40
-11
-4
45
-54
33
53
37
-21
-63
-27
25
-1
30
-26
-4
33
13
44
-32
-9
25
-21
-9
41
21
-34
1
-38
41
6
-2
27
-24
-46
10
-31
-41
-6
-40
36
-9
-34
-21
22
-4
-23
-66
17
-2
-10
17
-6
-7
8
7
18
-55
41
-56
-11
-29
-57
1
-60
3
-25
3
22
16
-58
-44
54
40
4
26
26
-23
-29
12
38
18
29
-31
0
-19
-30
39
0
-36
-31
-12
6
6
-25
48
8
23
-18
-20
-36
-19
78
-22
56
8
17
-41
-34
27
-14
44
-18
-23
3
37
8
2
39
22
-12
11
-22
0
61
15
29
-20
9
24
0
22
20
-14
-6
5
35
-20
-30
-24
19
-22
-33
-17
-6
31
-33
34
38
22
18
-33
16
-20
-43
0
13
10
37
-19
18
20
32
-45
5
21
-9
13
5
14
-4
-44
-36
34
22
-31
-4
-42
27
35
-17
-45
38
-34
-4
-2
-50
5
38
-54
22
19
-9
-25
-28
-38
26
-49
24
18
-6
-58
-35
9
2
-11
13
52
30
-41
2
-18
21
39
52
22
-40
26
-43
25
-26
-1
-3
0
-24
36
-27
38
-16
34
0
8
-22
-34
-4
-7
11
20
14
10
-16
24
-39
26
-39
22
44
-47
-30
20
15
26
-1
22
-23
-26
-46
-29
-101
36
16
-6
-4
51
43
5
-65
13
-26
9
25
-55
-40
5
-18
64
38
29
-53
-3
-11
4
-33
12
-35
46
30
60
23
-29
-41
60
14
-20
-33
22
20
-17
19
-41
7
34
6
38
-34
20
41
-1
-74
77
-33
-28
39
-19
4
31
11
-93
58
1
-62
-52
-79
-37
-23
-5
-46
33
-7
-32
56
-26
-41
-31
-48
-30
-71
12
-5
14
-31
41
-20
-36
10
30
15
-57
-34
-56
69
-43
74
-18
14
-11
55
-36
-31
16
-56
-37
36
-38
18
-67
-47
-10
-37
41
5
-12
15
34
-31
40
-35
36
-8
-15
-23
7
31
3
-34
13
-10
-5
-13
4
-6
-11
-40
36
-40
-36
-32
-21
-1
27
-5
-44
15
-26
29
11
20
-39
12
22
3
11
40
47
-52
22
-31
3
-26
12
11
-28
-4
-43
41
-31
22
-14
-31
-32
-44
13
43
-28
-5
40
40
32
-32
21
-3
16
27
-22
-5
-19
-29
20
31
-35
12
28
-38
15
25
-24
-34
11
-22
11
21
-28
-1
8
-51
-2
11
37
-11
4
-18
-37
14
-39
1
-28
32
-35
-3
17
33
23
27
-28
-33
-24
-70
-32
-17
-38
7
30
-51
-21
48
-19
19
33
9
-31
15
10
-18
16
15
27
8
-24
4
-39
17
60
-9
-10
74
-19
43
21
1
-14
-61
39
-36
-46
-32
-25
9
56
-12
-8
6
-24
-26
23
16
-1
-43
50
30
40
28
-25
56
46
24
-20
26
3
-29
-10
29
-8
9
-42
24
18
-5
-45
-1
-28
-17
-4
-22
5
40
-18
24
-9
-40
-10
-30
23
-59
30
9
-46
18
14
43
-41
13
-33
-46
23
-4
28
20
-44
-1
-4
-3
-12
23
-12
38
-19
13
-42
55
26
-33
-16
13
-20
-17
72
71
2
7
-15
9
-50
43
24
-48
53
-6
-9
15
13
-45
0
-42
1
-23
-14
-41
39
31
-20
2
-44
-1
-1
-11
-12
24
-4
3
-12
21
-3
-45
-18
1
-31
14
50
-57
-32
40
-24
52
-46
17
18
11
-71
-38
-42
24
25
41
26
-33
46
-45
41
2
42
-37
-48
-37
22
26
-35
-1
-20
-22
30
9
9
-23
-2
-33
35
5
-31
16
15
-2
48
-29
-33
-46
-70
4
-58
-1
-10
-7
34
-21
26
-13
22
16
-12
-18
16
-48
-24
39
-26
56
-16
40
-9
-57
-29
-12
3
20
11
-20
2
48
-31
37
-37
-56
1
1
4
14
52
-5
-23
-14
-46
-39
28
-4
11
10
-43
-25
-12
50
6
-1
-31
-17
-45
-19
-35
-24
-23
19
16
-17
-34
31
-22
-11
-5
39
-37
48
31
-35
13
-38
-42
-63
-12
-8
-36
15
22
25
23
5
30
-59
6
-66
59
32
32
-69
1
-43
-59
-8
60
-7
16
-7
-44
-19
-30
-76
-38
-31
75
-25
-10
-23
46
-13
-2
0
-45
7
46
-35
-55
-20
-1
12
-37
18
19
5
-18
39
7
-5
-28
3
29
-1
-79
4
-10
-36
22
51
29
-3
-1
-78
-9
-34
38
62
-30
-41
33
-26
-17
49
15
38
39
3
-37
-20
61
14
31
19
44
33
19
-9
52
26
2
55
-16
10
34
19
63
-32
-34
33
15
-32
-19
18
-19
-40
42
2
26
-23
58
-41
-22
-9
-31
-43
25
-31
-67
4
36
-30
25
9
20
-27
28
-7
-40
-41
-18
-44
8
-7
4
18
-54
31
-41
0
-19
-46
0
-29
-32
-25
-40
-31
51
-15
36
-29
-46
-48
5
21
-55
0
-51
-25
55
-42
2
23
-26
-2
-22
-8
7
-31
32
-4
-22
33
-24
22
-3
45
11
-12
-5
-12
-8
17
-43
9
-48
-12
-12
2
20
25
-33
-38
0
36
36
-21
-1
35
10
-42
4
22
29
-35
-2
-3
-24
22
-34
-10
19
-26
34
-23
-35
14
15
-30
-17
-19
25
-34
8
10
-39
-33
-14
32
-17
-34
25
-32
-41
-12
-39
32
43
7
18
-18
-42
-4
-14
-11
41
-11
25
-31
13
-47
15
-29
-22
20
-38
27
-8
-23
3
16
-27
-15
-9
-1
-22
-2
-5
-11
-34
-23
-2
51
-18
-34
-16
-7
-12
-24
-23
-21
25
12
22
-35
4
-27
-52
12
28
-24
-39
30
0
-22
-36
22
-43
21
0
-2
-32
30
2
7
-15
9
2
-18
-35
-12
-24
41
28
-10
-16
41
-39
-46
32
34
-11
-21
37
15
-50
12
13
35
-12
-4
43
-25
1
-37
21
-41
-3
10
0
27
-9
-20
42
-20
-11
-43
-20
3
-38
-38
-16
-33
38
-38
-42
34
34
-2
22
-46
-37
-14
-47
-31
-1
-18
10
13
-26
42
15
-21
-1
46
-30
-38
-43
-27
42
0
20
30
38
42
19
-8
5
13
29
33
8
-37
-2
37
-56
-20
11
-1
-16
6
21
-35
-17
-26
-33
-5
-11
-42
-13
-19
-13
-13
41
26
-32
-7
0
-42
41
16
41
10
-36
-24
-23
50
40
-20
3
12
15
-35
45
-31
4
-3
37
27
-11
-34
-37
-10
-29
-6
-17
34
-40
34
-20
-24
3
24
-32
-24
-25
-28
-28
-30
-12
-5
57
-21
8
38
-17
-28
10
8
58
18
39
-21
9
-38
-3
59
35
9
39
-25
24
41
-2
4
-34
-50
-16
15
-69
27
10
-23
-24
-29
1
-39
-13
34
-1
-10
13
21
-16
-31
-55
-33
49
29
14
-29
22
-23
5
10
-45
21
-16
-14
22
-11
5
-7
9
29
1
-38
34
20
24
8
-63
-9
2
4
-2
-47
-20
1
-28
52
30
-32
16
-21
31
-2
-33
10
43
-17
9
6
-4
12
-44
15
-28
29
-4
26
-4
35
8
-18
-41
20
40
3
37
3
26
8
-10
8
-26
29
-15
26
19
-20
38
-6
-27
12
3
-30
-30
9
29
30
39
-25
-23
-3
16
54
18
16
22
-46
40
-27
-16
-3
37
-10
-19
28
-7
-13
3
17
-20
-28
14
6
-45
-27
-14
27
50
4
27
-6
-16
-4
-31
37
-47
-33
35
22
-33
-25
-38
-30
-37
-14
-20
-29
22
42
-37
6
36
3
18
-46
-17
-48
-28
5
1
15
25
23
-5
-15
-30
25
14
-36
-41
46
37
8
37
-21
-6
33
-44
1
45
21
-24
0
15
22
-35
-33
36
-18
-45
-24
11
36
20
-7
-49
10
-23
-38
43
11
-14
41
-24
-15
12
-9
27
31
-3
24
-40
-63
22
30
-6
25
27
-3
29
50
-46
25
-18
21
-18
21
-53
16
-37
-8
-29
-4
10
-8
-4
-2
42
-6
13
-34
27
29
-55
-33
38
-11
33
35
-31
0
16
10
-4
-16
21
-27
-11
-7
34
-34
52
-21
-46
10
35
0
-47
47
18
33
-14
20
-37
32
14
36
-8
-16
4
-61
-6
-1
18
-5
46
38
-13
-9
34
-24
6
24
38
-51
-31
10
-22
1
-16
35
-42
2
-1
-21
-1
-20
-5
20
47
-31
14
7
-6
-34
46
38
-19
3
-48
41
-9
-4
-1
35
1
35
33
-39
-11
-10
21
22
-20
46
7
27
38
3
13
63
41
-13
-18
3
7
25
-28
-66
26
59
9
-49
-55
47
15
-8
-20
-32
9
-8
-40
-5
67
-41
7
-20
46
22
-42
-28
-15
-21
35
-18
37
17
44
-10
28
29
-20
44
-26
-50
10
-27
-20
27
32
1
-4
2
-5
-41
32
11
37
-46
-9
-51
-36
-15
-5
49
24
-18
8
-44
52
-5
-14
-35
5
-26
-1
-31
38
31
7
-30
31
-1
-13
20
6
-46
-5
6
20
-42
-11
-25
-4
-17
19
-47
-22
22
-31
27
3
18
-10
7
-14
-18
5
-8
-27
25
-45
26
-5
26
-24
9
-27
-23
35
24
-44
24
-29
26
-37
34
2
-26
7
32
-25
-34
-40
-5
7
-6
-41
36
-13
-26
40
-29
-47
18
-8
36
-7
-18
-38
1
-42
-19
-14
7
18
5
-28
23
33
-28
-45
28
-44
21
19
34
-36
-8
31
-14
-19
-20
-42
-42
-22
0
-15
-24
11
-11
17
9
10
-12
36
14
27
10
-26
-2
-19
48
-17
-23
-20
-34
22
-59
15
26
23
-5
22
-19
-8
34
30
-5
-31
-6
-24
20
1
-34
-3
24
-46
-33
-22
10
-29
-5
6
22
28
10
-10
31
25
-40
-32
10
-48
78
-19
8
-33
-55
21
49
-28
20
6
-22
19
-7
-20
-32
6
32
-11
-43
25
-28
-22
-34
-56
-24
-34
24
71
-46
-3
25
22
-6
13
7
2
50
39
22
6
22
-38
-43
10
-15
-46
-46
47
3
2
-31
-41
-27
-26
41
10
-1
-47
59
19
-36
3
-4
42
49
-45
-4
-25
-15
39
6
-4
-20
-7
-60
-20
-4
-43
-18
-4
-13
-7
32
-46
-18
1
0
-19
5
16
24
-29
39
-38
-36
-50
-22
-38
-7
0
14
1
21
-51
-43
65
-33
14
4
6
8
23
-5
45
-38
36
27
-27
23
-43
-19
-36
-5
-9
-8
-27
19
-27
7
-47
-41
-56
14
-33
21
-32
-20
14
41
-15
-7
22
-6
8
-45
12
-9
-7
-12
-9
22
14
-13
52
29
3
33
49
-51
29
36
-12
-32
3
-3
12
-52
4
-7
35
-35
-33
11
-25
48
-17
42
4
32
-1
-4
-11
3
-43
-5
-20
-16
5
-8
5
-19
-12
-18
-38
-22
-19
26
27
34
39
45
30
71
31
-17
-9
-38
37
-84
9
1
60
2
-26
6
-37
4
-36
-33
-12
25
18
-52
-88
-71
47
-43
-55
-21
38
-23
-10
10
32
-42
7
35
-51
31
-19
-13
25
25
67
8
40
-24
-40
54
-28
-23
22
-4
-71
4
32
-70
61
-82
47
58
5
23
33
29
16
-43
22
-1
40
40
-51
-6
-25
48
-40
-93
20
-30
53
-4
62
55
21
28
34
-33
28
-48
55
34
34
35
39
34
26
-28
26
22
6
25
-41
2
-29
54
28
-8
4
-36
-32
-39
-57
-4
-43
52
63
0
-46
